digraph Tree {
node [shape=box] ;
0 [label="X[12] <= 4.5\ngini = 0.657\nsamples = 198\nvalue = [104, 39, 21, 23, 11]"] ;
1 [label="X[11] <= 0.5\ngini = 0.387\nsamples = 108\nvalue = [83, 15, 4, 4, 2]"] ;
0 -> 1 [labeldistance=2.5, labelangle=45, headlabel="True"] ;
2 [label="X[7] <= 161.5\ngini = 0.204\nsamples = 78\nvalue = [69, 9, 0, 0, 0]"] ;
1 -> 2 ;
3 [label="X[3] <= 139.0\ngini = 0.355\nsamples = 39\nvalue = [30, 9, 0, 0, 0]"] ;
2 -> 3 ;
4 [label="X[9] <= 1.7\ngini = 0.198\nsamples = 27\nvalue = [24, 3, 0, 0, 0]"] ;
3 -> 4 ;
5 [label="X[0] <= 62.5\ngini = 0.147\nsamples = 25\nvalue = [23, 2, 0, 0, 0]"] ;
4 -> 5 ;
6 [label="X[3] <= 109.0\ngini = 0.083\nsamples = 23\nvalue = [22, 1, 0, 0, 0]"] ;
5 -> 6 ;
7 [label="X[7] <= 147.5\ngini = 0.444\nsamples = 3\nvalue = [2, 1, 0, 0, 0]"] ;
6 -> 7 ;
8 [label="gini = 0.0\nsamples = 2\nvalue = [2, 0, 0, 0, 0]"] ;
7 -> 8 ;
9 [label="gini = 0.0\nsamples = 1\nvalue = [0, 1, 0, 0, 0]"] ;
7 -> 9 ;
10 [label="gini = 0.0\nsamples = 20\nvalue = [20, 0, 0, 0, 0]"] ;
6 -> 10 ;
11 [label="X[4] <= 173.0\ngini = 0.5\nsamples = 2\nvalue = [1, 1, 0, 0, 0]"] ;
5 -> 11 ;
12 [label="gini = 0.0\nsamples = 1\nvalue = [1, 0, 0, 0, 0]"] ;
11 -> 12 ;
13 [label="gini = 0.0\nsamples = 1\nvalue = [0, 1, 0, 0, 0]"] ;
11 -> 13 ;
14 [label="X[7] <= 152.0\ngini = 0.5\nsamples = 2\nvalue = [1, 1, 0, 0, 0]"] ;
4 -> 14 ;
15 [label="gini = 0.0\nsamples = 1\nvalue = [1, 0, 0, 0, 0]"] ;
14 -> 15 ;
16 [label="gini = 0.0\nsamples = 1\nvalue = [0, 1, 0, 0, 0]"] ;
14 -> 16 ;
17 [label="X[0] <= 64.5\ngini = 0.5\nsamples = 12\nvalue = [6, 6, 0, 0, 0]"] ;
3 -> 17 ;
18 [label="X[8] <= 0.5\ngini = 0.444\nsamples = 9\nvalue = [3, 6, 0, 0, 0]"] ;
17 -> 18 ;
19 [label="X[5] <= 0.5\ngini = 0.278\nsamples = 6\nvalue = [1, 5, 0, 0, 0]"] ;
18 -> 19 ;
20 [label="gini = 0.0\nsamples = 5\nvalue = [0, 5, 0, 0, 0]"] ;
19 -> 20 ;
21 [label="gini = 0.0\nsamples = 1\nvalue = [1, 0, 0, 0, 0]"] ;
19 -> 21 ;
22 [label="X[7] <= 157.0\ngini = 0.444\nsamples = 3\nvalue = [2, 1, 0, 0, 0]"] ;
18 -> 22 ;
23 [label="X[4] <= 284.5\ngini = 0.5\nsamples = 2\nvalue = [1, 1, 0, 0, 0]"] ;
22 -> 23 ;
24 [label="gini = 0.0\nsamples = 1\nvalue = [0, 1, 0, 0, 0]"] ;
23 -> 24 ;
25 [label="gini = 0.0\nsamples = 1\nvalue = [1, 0, 0, 0, 0]"] ;
23 -> 25 ;
26 [label="gini = 0.0\nsamples = 1\nvalue = [1, 0, 0, 0, 0]"] ;
22 -> 26 ;
27 [label="gini = 0.0\nsamples = 3\nvalue = [3, 0, 0, 0, 0]"] ;
17 -> 27 ;
28 [label="gini = 0.0\nsamples = 39\nvalue = [39, 0, 0, 0, 0]"] ;
2 -> 28 ;
29 [label="X[1] <= 0.5\ngini = 0.702\nsamples = 30\nvalue = [14, 6, 4, 4, 2]"] ;
1 -> 29 ;
30 [label="X[10] <= 1.5\ngini = 0.328\nsamples = 16\nvalue = [13, 1, 1, 1, 0]"] ;
29 -> 30 ;
31 [label="gini = 0.0\nsamples = 11\nvalue = [11, 0, 0, 0, 0]"] ;
30 -> 31 ;
32 [label="X[7] <= 154.5\ngini = 0.72\nsamples = 5\nvalue = [2, 1, 1, 1, 0]"] ;
30 -> 32 ;
33 [label="X[7] <= 114.0\ngini = 0.444\nsamples = 3\nvalue = [2, 0, 1, 0, 0]"] ;
32 -> 33 ;
34 [label="gini = 0.0\nsamples = 1\nvalue = [0, 0, 1, 0, 0]"] ;
33 -> 34 ;
35 [label="gini = 0.0\nsamples = 2\nvalue = [2, 0, 0, 0, 0]"] ;
33 -> 35 ;
36 [label="X[4] <= 268.5\ngini = 0.5\nsamples = 2\nvalue = [0, 1, 0, 1, 0]"] ;
32 -> 36 ;
37 [label="gini = 0.0\nsamples = 1\nvalue = [0, 0, 0, 1, 0]"] ;
36 -> 37 ;
38 [label="gini = 0.0\nsamples = 1\nvalue = [0, 1, 0, 0, 0]"] ;
36 -> 38 ;
39 [label="X[8] <= 0.5\ngini = 0.755\nsamples = 14\nvalue = [1, 5, 3, 3, 2]"] ;
29 -> 39 ;
40 [label="X[4] <= 261.0\ngini = 0.449\nsamples = 7\nvalue = [1, 5, 1, 0, 0]"] ;
39 -> 40 ;
41 [label="X[7] <= 159.0\ngini = 0.278\nsamples = 6\nvalue = [1, 5, 0, 0, 0]"] ;
40 -> 41 ;
42 [label="X[0] <= 50.5\ngini = 0.5\nsamples = 2\nvalue = [1, 1, 0, 0, 0]"] ;
41 -> 42 ;
43 [label="gini = 0.0\nsamples = 1\nvalue = [0, 1, 0, 0, 0]"] ;
42 -> 43 ;
44 [label="gini = 0.0\nsamples = 1\nvalue = [1, 0, 0, 0, 0]"] ;
42 -> 44 ;
45 [label="gini = 0.0\nsamples = 4\nvalue = [0, 4, 0, 0, 0]"] ;
41 -> 45 ;
46 [label="gini = 0.0\nsamples = 1\nvalue = [0, 0, 1, 0, 0]"] ;
40 -> 46 ;
47 [label="X[3] <= 123.5\ngini = 0.653\nsamples = 7\nvalue = [0, 0, 2, 3, 2]"] ;
39 -> 47 ;
48 [label="X[10] <= 1.5\ngini = 0.375\nsamples = 4\nvalue = [0, 0, 1, 3, 0]"] ;
47 -> 48 ;
49 [label="gini = 0.0\nsamples = 1\nvalue = [0, 0, 1, 0, 0]"] ;
48 -> 49 ;
50 [label="gini = 0.0\nsamples = 3\nvalue = [0, 0, 0, 3, 0]"] ;
48 -> 50 ;
51 [label="X[3] <= 149.0\ngini = 0.444\nsamples = 3\nvalue = [0, 0, 1, 0, 2]"] ;
47 -> 51 ;
52 [label="gini = 0.0\nsamples = 2\nvalue = [0, 0, 0, 0, 2]"] ;
51 -> 52 ;
53 [label="gini = 0.0\nsamples = 1\nvalue = [0, 0, 1, 0, 0]"] ;
51 -> 53 ;
54 [label="X[2] <= 3.5\ngini = 0.784\nsamples = 90\nvalue = [21, 24, 17, 19, 9]"] ;
0 -> 54 [labeldistance=2.5, labelangle=-45, headlabel="False"] ;
55 [label="X[9] <= 1.3\ngini = 0.628\nsamples = 27\nvalue = [15, 4, 1, 5, 2]"] ;
54 -> 55 ;
56 [label="X[3] <= 137.5\ngini = 0.381\nsamples = 17\nvalue = [13, 3, 1, 0, 0]"] ;
55 -> 56 ;
57 [label="X[1] <= 0.5\ngini = 0.165\nsamples = 11\nvalue = [10, 0, 1, 0, 0]"] ;
56 -> 57 ;
58 [label="gini = 0.0\nsamples = 1\nvalue = [0, 0, 1, 0, 0]"] ;
57 -> 58 ;
59 [label="gini = 0.0\nsamples = 10\nvalue = [10, 0, 0, 0, 0]"] ;
57 -> 59 ;
60 [label="X[10] <= 1.5\ngini = 0.5\nsamples = 6\nvalue = [3, 3, 0, 0, 0]"] ;
56 -> 60 ;
61 [label="gini = 0.0\nsamples = 2\nvalue = [2, 0, 0, 0, 0]"] ;
60 -> 61 ;
62 [label="X[5] <= 0.5\ngini = 0.375\nsamples = 4\nvalue = [1, 3, 0, 0, 0]"] ;
60 -> 62 ;
63 [label="gini = 0.0\nsamples = 3\nvalue = [0, 3, 0, 0, 0]"] ;
62 -> 63 ;
64 [label="gini = 0.0\nsamples = 1\nvalue = [1, 0, 0, 0, 0]"] ;
62 -> 64 ;
65 [label="X[11] <= 0.5\ngini = 0.66\nsamples = 10\nvalue = [2, 1, 0, 5, 2]"] ;
55 -> 65 ;
66 [label="X[8] <= 0.5\ngini = 0.72\nsamples = 5\nvalue = [2, 1, 0, 1, 1]"] ;
65 -> 66 ;
67 [label="gini = 0.0\nsamples = 2\nvalue = [2, 0, 0, 0, 0]"] ;
66 -> 67 ;
68 [label="X[5] <= 0.5\ngini = 0.667\nsamples = 3\nvalue = [0, 1, 0, 1, 1]"] ;
66 -> 68 ;
69 [label="X[4] <= 270.0\ngini = 0.5\nsamples = 2\nvalue = [0, 1, 0, 0, 1]"] ;
68 -> 69 ;
70 [label="gini = 0.0\nsamples = 1\nvalue = [0, 0, 0, 0, 1]"] ;
69 -> 70 ;
71 [label="gini = 0.0\nsamples = 1\nvalue = [0, 1, 0, 0, 0]"] ;
69 -> 71 ;
72 [label="gini = 0.0\nsamples = 1\nvalue = [0, 0, 0, 1, 0]"] ;
68 -> 72 ;
73 [label="X[3] <= 116.0\ngini = 0.32\nsamples = 5\nvalue = [0, 0, 0, 4, 1]"] ;
65 -> 73 ;
74 [label="gini = 0.0\nsamples = 1\nvalue = [0, 0, 0, 0, 1]"] ;
73 -> 74 ;
75 [label="gini = 0.0\nsamples = 4\nvalue = [0, 0, 0, 4, 0]"] ;
73 -> 75 ;
76 [label="X[4] <= 310.0\ngini = 0.764\nsamples = 63\nvalue = [6, 20, 16, 14, 7]"] ;
54 -> 76 ;
77 [label="X[10] <= 1.5\ngini = 0.755\nsamples = 56\nvalue = [6, 20, 10, 14, 6]"] ;
76 -> 77 ;
78 [label="X[4] <= 243.5\ngini = 0.582\nsamples = 14\nvalue = [3, 8, 3, 0, 0]"] ;
77 -> 78 ;
79 [label="X[11] <= 0.5\ngini = 0.667\nsamples = 9\nvalue = [3, 3, 3, 0, 0]"] ;
78 -> 79 ;
80 [label="X[0] <= 42.0\ngini = 0.48\nsamples = 5\nvalue = [3, 2, 0, 0, 0]"] ;
79 -> 80 ;
81 [label="gini = 0.0\nsamples = 2\nvalue = [0, 2, 0, 0, 0]"] ;
80 -> 81 ;
82 [label="gini = 0.0\nsamples = 3\nvalue = [3, 0, 0, 0, 0]"] ;
80 -> 82 ;
83 [label="X[7] <= 141.0\ngini = 0.375\nsamples = 4\nvalue = [0, 1, 3, 0, 0]"] ;
79 -> 83 ;
84 [label="gini = 0.0\nsamples = 1\nvalue = [0, 1, 0, 0, 0]"] ;
83 -> 84 ;
85 [label="gini = 0.0\nsamples = 3\nvalue = [0, 0, 3, 0, 0]"] ;
83 -> 85 ;
86 [label="gini = 0.0\nsamples = 5\nvalue = [0, 5, 0, 0, 0]"] ;
78 -> 86 ;
87 [label="X[7] <= 112.5\ngini = 0.754\nsamples = 42\nvalue = [3, 12, 7, 14, 6]"] ;
77 -> 87 ;
88 [label="X[11] <= 1.5\ngini = 0.375\nsamples = 8\nvalue = [0, 6, 0, 2, 0]"] ;
87 -> 88 ;
89 [label="gini = 0.0\nsamples = 5\nvalue = [0, 5, 0, 0, 0]"] ;
88 -> 89 ;
90 [label="X[7] <= 97.0\ngini = 0.444\nsamples = 3\nvalue = [0, 1, 0, 2, 0]"] ;
88 -> 90 ;
91 [label="gini = 0.0\nsamples = 2\nvalue = [0, 0, 0, 2, 0]"] ;
90 -> 91 ;
92 [label="gini = 0.0\nsamples = 1\nvalue = [0, 1, 0, 0, 0]"] ;
90 -> 92 ;
93 [label="X[3] <= 144.5\ngini = 0.763\nsamples = 34\nvalue = [3, 6, 7, 12, 6]"] ;
87 -> 93 ;
94 [label="X[12] <= 6.5\ngini = 0.722\nsamples = 24\nvalue = [3, 5, 5, 10, 1]"] ;
93 -> 94 ;
95 [label="X[9] <= 2.15\ngini = 0.444\nsamples = 3\nvalue = [2, 0, 1, 0, 0]"] ;
94 -> 95 ;
96 [label="gini = 0.0\nsamples = 2\nvalue = [2, 0, 0, 0, 0]"] ;
95 -> 96 ;
97 [label="gini = 0.0\nsamples = 1\nvalue = [0, 0, 1, 0, 0]"] ;
95 -> 97 ;
98 [label="X[8] <= 0.5\ngini = 0.676\nsamples = 21\nvalue = [1, 5, 4, 10, 1]"] ;
94 -> 98 ;
99 [label="X[9] <= 0.95\ngini = 0.611\nsamples = 6\nvalue = [1, 0, 3, 2, 0]"] ;
98 -> 99 ;
100 [label="X[3] <= 130.0\ngini = 0.444\nsamples = 3\nvalue = [1, 0, 0, 2, 0]"] ;
99 -> 100 ;
101 [label="gini = 0.0\nsamples = 2\nvalue = [0, 0, 0, 2, 0]"] ;
100 -> 101 ;
102 [label="gini = 0.0\nsamples = 1\nvalue = [1, 0, 0, 0, 0]"] ;
100 -> 102 ;
103 [label="gini = 0.0\nsamples = 3\nvalue = [0, 0, 3, 0, 0]"] ;
99 -> 103 ;
104 [label="X[0] <= 59.0\ngini = 0.596\nsamples = 15\nvalue = [0, 5, 1, 8, 1]"] ;
98 -> 104 ;
105 [label="X[11] <= 0.5\ngini = 0.486\nsamples = 12\nvalue = [0, 3, 1, 8, 0]"] ;
104 -> 105 ;
106 [label="X[0] <= 52.0\ngini = 0.612\nsamples = 7\nvalue = [0, 3, 1, 3, 0]"] ;
105 -> 106 ;
107 [label="X[7] <= 128.0\ngini = 0.56\nsamples = 5\nvalue = [0, 1, 1, 3, 0]"] ;
106 -> 107 ;
108 [label="gini = 0.0\nsamples = 3\nvalue = [0, 0, 0, 3, 0]"] ;
107 -> 108 ;
109 [label="X[1] <= 0.5\ngini = 0.5\nsamples = 2\nvalue = [0, 1, 1, 0, 0]"] ;
107 -> 109 ;
110 [label="gini = 0.0\nsamples = 1\nvalue = [0, 0, 1, 0, 0]"] ;
109 -> 110 ;
111 [label="gini = 0.0\nsamples = 1\nvalue = [0, 1, 0, 0, 0]"] ;
109 -> 111 ;
112 [label="gini = 0.0\nsamples = 2\nvalue = [0, 2, 0, 0, 0]"] ;
106 -> 112 ;
113 [label="gini = 0.0\nsamples = 5\nvalue = [0, 0, 0, 5, 0]"] ;
105 -> 113 ;
114 [label="X[3] <= 127.5\ngini = 0.444\nsamples = 3\nvalue = [0, 2, 0, 0, 1]"] ;
104 -> 114 ;
115 [label="gini = 0.0\nsamples = 2\nvalue = [0, 2, 0, 0, 0]"] ;
114 -> 115 ;
116 [label="gini = 0.0\nsamples = 1\nvalue = [0, 0, 0, 0, 1]"] ;
114 -> 116 ;
117 [label="X[7] <= 130.5\ngini = 0.66\nsamples = 10\nvalue = [0, 1, 2, 2, 5]"] ;
93 -> 117 ;
118 [label="gini = 0.0\nsamples = 4\nvalue = [0, 0, 0, 0, 4]"] ;
117 -> 118 ;
119 [label="X[11] <= 1.5\ngini = 0.722\nsamples = 6\nvalue = [0, 1, 2, 2, 1]"] ;
117 -> 119 ;
120 [label="X[7] <= 145.5\ngini = 0.5\nsamples = 2\nvalue = [0, 1, 0, 0, 1]"] ;
119 -> 120 ;
121 [label="gini = 0.0\nsamples = 1\nvalue = [0, 0, 0, 0, 1]"] ;
120 -> 121 ;
122 [label="gini = 0.0\nsamples = 1\nvalue = [0, 1, 0, 0, 0]"] ;
120 -> 122 ;
123 [label="X[1] <= 0.5\ngini = 0.5\nsamples = 4\nvalue = [0, 0, 2, 2, 0]"] ;
119 -> 123 ;
124 [label="X[12] <= 6.5\ngini = 0.444\nsamples = 3\nvalue = [0, 0, 1, 2, 0]"] ;
123 -> 124 ;
125 [label="gini = 0.0\nsamples = 1\nvalue = [0, 0, 1, 0, 0]"] ;
124 -> 125 ;
126 [label="gini = 0.0\nsamples = 2\nvalue = [0, 0, 0, 2, 0]"] ;
124 -> 126 ;
127 [label="gini = 0.0\nsamples = 1\nvalue = [0, 0, 1, 0, 0]"] ;
123 -> 127 ;
128 [label="X[11] <= 2.5\ngini = 0.245\nsamples = 7\nvalue = [0, 0, 6, 0, 1]"] ;
76 -> 128 ;
129 [label="gini = 0.0\nsamples = 6\nvalue = [0, 0, 6, 0, 0]"] ;
128 -> 129 ;
130 [label="gini = 0.0\nsamples = 1\nvalue = [0, 0, 0, 0, 1]"] ;
128 -> 130 ;
}
